<?xml version="1.0" ?>

<BIF VERSION="0.3">
<NETWORK>
<NAME>test2</NAME>
<PROPERTY>software aGrUM</PROPERTY>

<!-- Variables -->
<VARIABLE TYPE="nature">
	<NAME>0</NAME>
	<PROPERTY>0</PROPERTY>
	<OUTCOME>0</OUTCOME>
	<OUTCOME>1</OUTCOME>
</VARIABLE>

<VARIABLE TYPE="nature">
	<NAME>1</NAME>
	<PROPERTY>1</PROPERTY>
	<OUTCOME>0</OUTCOME>
	<OUTCOME>1</OUTCOME>
</VARIABLE>

<VARIABLE TYPE="nature">
	<NAME>2</NAME>
	<PROPERTY>2</PROPERTY>
	<OUTCOME>0</OUTCOME>
	<OUTCOME>1</OUTCOME>
</VARIABLE>

<VARIABLE TYPE="nature">
	<NAME>3</NAME>
	<PROPERTY>3</PROPERTY>
	<OUTCOME>0</OUTCOME>
	<OUTCOME>1</OUTCOME>
</VARIABLE>

<VARIABLE TYPE="nature">
	<NAME>4</NAME>
	<PROPERTY>4</PROPERTY>
	<OUTCOME>0</OUTCOME>
	<OUTCOME>1</OUTCOME>
</VARIABLE>

<!-- Probability distributions -->
<DEFINITION>
	<FOR>0</FOR>
	<GIVEN>4</GIVEN>
	<TABLE>
		0.362117 0.637883
		0.548166 0.451834
	</TABLE>
</DEFINITION>
<DEFINITION>
	<FOR>1</FOR>
	<GIVEN>3</GIVEN>
	<TABLE>
		0.651514 0.348486
		0.542043 0.457957
	</TABLE>
</DEFINITION>
<DEFINITION>
	<FOR>2</FOR>
	<TABLE>
		0.54726 0.45274
	</TABLE>
</DEFINITION>
<DEFINITION>
	<FOR>3</FOR>
	<GIVEN>2</GIVEN>
	<TABLE>
		0.927357 0.0726434
		0.261745 0.738255
	</TABLE>
</DEFINITION>
<DEFINITION>
	<FOR>4</FOR>
	<GIVEN>1</GIVEN>
	<GIVEN>2</GIVEN>
	<TABLE>
		0.00714983 0.99285
		0.457666 0.542334
		0.653097 0.346903
		0.224573 0.775427
	</TABLE>
</DEFINITION>

</NETWORK>
</BIF>
